digraph Tree {
node [shape=box, style="filled, rounded", color="black", fontname=helvetica] ;
edge [fontname=helvetica] ;
0 [label="petal length (cm) <= 2.6\ngini = 0.67\nsamples = 92\nvalue = [54, 48, 48]\nclass = setosa", fillcolor="#fdf8f3"] ;
1 [label="gini = 0.0\nsamples = 33\nvalue = [54, 0, 0]\nclass = setosa", fillcolor="#e58139"] ;
0 -> 1 [labeldistance=2.5, labelangle=45, headlabel="True"] ;
2 [label="petal width (cm) <= 1.75\ngini = 0.5\nsamples = 59\nvalue = [0, 48, 48]\nclass = versicolor", fillcolor="#ffffff"] ;
0 -> 2 [labeldistance=2.5, labelangle=-45, headlabel="False"] ;
3 [label="petal length (cm) <= 5.3\ngini = 0.23\nsamples = 30\nvalue = [0, 46, 7]\nclass = versicolor", fillcolor="#57e994"] ;
2 -> 3 ;
4 [label="petal width (cm) <= 1.65\ngini = 0.04\nsamples = 28\nvalue = [0, 46, 1]\nclass = versicolor", fillcolor="#3de684"] ;
3 -> 4 ;
5 [label="gini = 0.0\nsamples = 26\nvalue = [0, 43, 0]\nclass = versicolor", fillcolor="#39e581"] ;
4 -> 5 ;
6 [label="sepal width (cm) <= 2.75\ngini = 0.38\nsamples = 2\nvalue = [0, 3, 1]\nclass = versicolor", fillcolor="#7beeab"] ;
4 -> 6 ;
7 [label="gini = 0.0\nsamples = 1\nvalue = [0, 0, 1]\nclass = virginica", fillcolor="#8139e5"] ;
6 -> 7 ;
8 [label="gini = 0.0\nsamples = 1\nvalue = [0, 3, 0]\nclass = versicolor", fillcolor="#39e581"] ;
6 -> 8 ;
9 [label="gini = 0.0\nsamples = 2\nvalue = [0, 0, 6]\nclass = virginica", fillcolor="#8139e5"] ;
3 -> 9 ;
10 [label="petal length (cm) <= 4.85\ngini = 0.09\nsamples = 29\nvalue = [0, 2, 41]\nclass = virginica", fillcolor="#8743e6"] ;
2 -> 10 ;
11 [label="sepal width (cm) <= 3.0\ngini = 0.44\nsamples = 2\nvalue = [0, 2, 1]\nclass = versicolor", fillcolor="#9cf2c0"] ;
10 -> 11 ;
12 [label="gini = 0.0\nsamples = 1\nvalue = [0, 0, 1]\nclass = virginica", fillcolor="#8139e5"] ;
11 -> 12 ;
13 [label="gini = 0.0\nsamples = 1\nvalue = [0, 2, 0]\nclass = versicolor", fillcolor="#39e581"] ;
11 -> 13 ;
14 [label="gini = 0.0\nsamples = 27\nvalue = [0, 0, 40]\nclass = virginica", fillcolor="#8139e5"] ;
10 -> 14 ;
}